{"biases": [[[0.16075164873725575], [0.1622904587893424], [0.2630375406680098], [0.9533422508781271], [-0.527244283873417], [0.5041006980538595], [0.5939188517081814], [-0.6129270430690631], [0.01165007856645911], [-0.7900541263688482]], [[-2.9603349185106853], [-3.487112593181248], [-3.8440445417444224], [-4.1875508475720675], [-1.3564894968666983], [-0.4703631635693745], [-2.0293347786836753], [-3.4653925834760777], [-2.080864487706491], [-1.9933904766266115], [-2.5886666054098524], [-4.76303760634418], [-2.131532636140457], [-3.1256791152051795], [-1.6756597542528873], [-1.6483744776497444], [-1.687322325557582], [-2.995450185991406], [-1.4177066121253066], [-2.0810921488387013], [-3.8250675541441237], [-1.8454108691926103], [-3.784875994695512], [-3.166979443718755], [-2.390393345492529], [-1.910141690550629], [-2.2417100591276182], [-2.7336856333204653], [-3.6646489249841596], [-2.930473901355677], [-3.09121354402521], [-2.8607831090302716], [-2.522640217089156], [-1.6981537064818077], [-2.5980158061664924], [-2.9259765532459894], [-3.4832365638622673], [-3.4159764585373504], [-2.5726465298540857], [-3.083854572994181], [-3.52916527347386], [-1.6112315522764584], [-1.7384910359383103], [-2.3883114043498006], [-2.097716867019968], [-1.4401053735665041], [-2.7461541201643014], [-2.2120045785271825], [-2.3481735036018327], [-0.9548275449586076], [-2.044218002668218], [-0.9702604858657108], [-1.4574961972478628], [-1.8677812809737866], [-0.531941266958816], [-1.244231359472683], [0.22305069232180075], [-3.657793667172618], [-0.7497102619379317], [-1.8420153840574383], [-3.1528059294139026], [-0.9577574969374789], [-3.081861544805534], [-1.7122062278366206], [-2.410795859029249], [-2.1349912589245315], [-0.7735238513275042], [-2.375634958772813], [-0.11103785194227672], [-1.2412797552685089], [0.2228517756755474], [-0.6630415326237153], [-1.134793411500847], [-1.5941231412366186], [-0.9512571379522822], [-2.418406593277594], [-1.0619670841326954], [-1.9419169076937537], [0.036256584332214355], [-0.6552336201371213], [-0.9667118081218855], [-0.25922816410569066], [-1.2653996499477072], [-0.4023849723645732], [-1.6119703261054146], [-1.7806146560371379], [-1.2439305808885681], [-1.0770381040284607], [0.014895333717132666], [-1.8844126236030228], [-0.20674109980175262], [-1.0450030017887746], [-1.780991188484478], [-2.415224940786721], [-0.6891171603660051], [-1.8982435845985552], [-0.8869224649397608], [-0.48336677600804207], [-0.6114128473260056], [-0.9583145131702184], [-2.189578012743649], [-1.2413886692483787], [-2.1374076167335256], [-2.2787967327784298], [-1.5933952647269816], [-0.8432379724555227], [-0.45139807220480754], [-1.54797004652344], [-1.754111630353171], [-0.2114698657297083], [-0.7287228642118695], [0.19648041979765268], [-0.8999253861117131], [-2.0585987414241176], [-0.69670436786527], [0.36525838052805276], [-2.2418804999887882], [0.5879399647651762], [-1.0410705811626717], [-0.14452529693162733], [-2.2596893308570722], [-0.855053854571079], [-0.05834496027420749], [-0.7548021932184324], [0.11832129545339282], [-2.490773755562631], [-1.7323088450769912], [-1.8574945624521504], [-0.7113972014475816], [-0.224005956429727], [-2.3072453748129886], [-1.422608334735135], [0.6306140425739949], [-1.0375408083323783], [-0.5885920070664632], [-0.498028762508746], [-0.41043258844383806], [-1.6327614513451503], [-0.8051165089680308], [-1.4826610953044053], [0.6332864103275354], [-1.1256376681021727], [-0.15726773745139316], [-1.0952514218327565], [0.19256758607390922], [-1.5923183813749826], [-2.144758168942147], [-0.3432118435770513], [-1.316590147926057], [-0.6685189224803907], [-2.1246438193596275], [-1.255016901224232], [-1.202336308258039], [0.12375083067728855], [-2.1497202511233704], [-0.12363632370222512], [-0.3730515602419056], [-1.8506734007113657], [-0.2135509535956096], [-0.3446163890587993], [-0.7776650798913269], [-0.625845743496376], [-1.3413000322091309], [0.7791534163577891], [-1.807213259367368], [-1.811249629397231], [-1.8075548574248153], [-1.7246216922450681], [-0.10691828951416876], [-0.9434688434848867], [-1.9508175963707346], [-1.666638265310322], [-1.849603657053564], [-2.129476688082721], [-0.9944844960555946], [-0.31914382041164074], [-0.7004071283101664], [-1.9082526849340131], [-0.4899426902789325], [-1.3613514148058041], [-0.6080976939837693], [-2.4414458573282274], [-2.260518984766869], [-0.5054080010038848], [-0.4751568075973201], [-1.0647717281923854], [-0.7767913333004403], [-0.8823476278143065], [-0.854901230479617], [-0.8087951121487769], [-0.6260571560913603], [-0.4172928571600908], [0.1610686412972462], [-0.4006863339197063], [0.19384601416813166], [-0.44357809374612134], [-0.5256305115125366], [0.07359938565945265], [-0.6513413538023249], [-1.4862724176397601], [-0.5449285838282002], [-3.344526846200633], [-3.147107800428727], [-2.494174323049298], [-1.187396123893042], [-2.3854739245222483], [-3.6837288064182494], [-1.9728553031790117], [-2.9838478699686135], [-2.973474947567672], [-3.181261749794365], [-1.7806488309762725], [-3.683346473483637], [-3.0643931797651915], [-3.8431872488953176], [-2.07758319727971], [-2.902107857547384], [-2.435921662609902], [-1.9105462403972864], [-3.138285196292074], [-1.759450843035578], [-3.275246064602266], [-3.386011528260642], [-3.398481874411872], [-1.1180857882758912], [-2.363671504118625], [-2.147432737824234], [-2.483438383659344], [-3.3134721381581795], [-0.7990658930232328], [-2.841174007552402], [-4.64277004377446], [-2.359684876047436], [-2.1471362438140944], [-2.9827197836755883], [-4.08821123466721], [-1.668672350086936], [-4.456813100672215], [-3.175110066800318], [-2.175983501501422], [-2.677525036644495], [-4.724215089973337], [-2.701077379270456], [-1.5398584919054958], [-2.5735530365508845], [-2.774164254580676], [-2.844248146435957], [-4.203081525331763], [-1.8511097530275564], [-3.450721624595824]]], "weights": [[[1.0982921090262017, 0.44157597239067314], [-1.400758522084525, -0.6440745391935686], [-0.5511124689982614, -0.4305504042962034], [1.3006939430677038, 0.25118138111864863], [0.8100312612184432, 0.6455455065107746], [-1.7853870295512353, -2.97182397625995], [0.49368581839771664, 0.3893676813960984], [-0.9409583494729085, -1.635321127883871], [-1.0025328679012366, -1.2582219496415692], [0.37684950307617493, 0.6831741865685037]], [[-2.845335896090007, 0.05576606403976747, 0.10519862175672373, -2.130443931822797, -2.6080041932235645, -0.061161869586187995, -2.599577159000432, -0.07849138243762839, 0.22270634842842532, -2.3696111830248894], [-2.2432492532625834, -0.3171164451772765, -0.3867238524455082, -2.377328669537972, -2.2689234547058486, 0.08070629256032094, -2.6994926045349654, -0.022557933747695942, 0.0898572556433801, -2.4372001329047035], [-2.2640115087429886, 0.3445539486722781, -0.1839881803551511, -2.308753230495658, -2.397603086714922, 0.1094093151213617, -2.519799537247443, -0.07751845707821796, -0.02500244784210809, -2.1790948000634973], [-2.528849916190172, -0.162401321657008, -0.2243020427625479, -2.10547249610392, -1.5728190113838354, 0.017921488520703667, -2.5406926124998015, -0.380929653145708, 0.5264163158984003, -2.5779223491857084], [-3.0675440204506947, -0.3956542750770453, -0.18776352255015932, -2.366882608345206, -3.354258655657923, -0.8814497727450618, -2.8261894247423247, 0.3094725678012961, -0.07903173510867956, -2.5419417825597526], [-3.688208324272217, -0.02207448129295413, 0.038589600558502184, -1.8928992439998553, -3.2517221075113873, 0.1177502544008901, -3.0541755338719523, -0.12946940489757497, 0.028941907569280657, -3.155937167516639], [-2.8539766541594327, -0.38087488009217635, 0.422670951138686, -2.519073734707761, -2.3391400679990664, 0.1785942674188836, -2.9429766405238125, -0.2208144250461141, 0.3994531846031664, -2.828805099841315], [-2.244543748845901, -0.33723210714840823, 0.6549115993149053, -1.9509906258866916, -2.3897418371387444, 0.04323997621769157, -2.6761988506716206, 0.13839627845851699, 0.24470050521844397, -2.786438855649855], [-2.4128077998132165, 0.04064784628014529, -0.5332548165350443, -2.557496922526665, -3.067470767876021, -0.18457261756336885, -2.859287479515911, 0.18401911077049268, 0.07828309556061, -2.535379956933677], [-2.8120232380984413, -0.13594061104378496, 0.018843480593103656, -2.706043782698661, -2.3889161942405126, 0.18712928430848144, -2.9020759292837712, -0.1656165845423659, -0.2916128033652758, -2.7108579665635912], [-3.1871016246341073, 0.2986255940831878, 0.1615995162145251, -2.2004049708747964, -2.7189019185338106, -0.153626324430784, -2.725894787776538, 0.29989027033734633, -0.6315353430515737, -2.0923367199402656], [-2.135082141573833, -0.476949521346041, -0.24254007405715833, -1.943122071670892, -2.531794354542799, 0.21082417053119812, -1.8077354451684782, -0.09270410451293862, -0.44985819059991333, -2.3325361994458107], [-2.287067132373424, -0.32646453149136023, 0.09703657047584027, -3.024308437054164, -3.0591915865263757, -0.6405779960157783, -2.4804926240290857, -0.13166334269757032, 0.24249545569985081, -2.5307162036291753], [-2.4696855472042336, -0.3461315866549366, 0.07329295471012987, -2.3467262442421886, -2.205638228058345, -0.3727411688185312, -2.8785624567856063, -0.3054783063319776, -0.21574936515089732, -2.487015668862023], [-2.979608585438615, -0.499752406322328, -0.03908273221299922, -2.2417798989260547, -2.9901638502560544, 0.047762413255838104, -2.631821975575632, 0.26879596157385915, -0.3993818519693723, -2.9942721849148035], [-2.8677254782061246, 0.3087132753215288, 0.0630085601786965, -2.631392323172125, -2.6978733142397, -0.07775450296696448, -2.7053277123044612, 0.33939337698295224, -0.13710202437253752, -2.9626136650704926], [-2.330806844383986, -0.0912098772849559, 0.9005464607878473, -2.5099814444708053, -2.872528532198587, -0.04554636727739897, -3.160618615664066, 0.1987465556042305, -0.2407056348196543, -2.9520493086062367], [-2.8237422340387535, -0.18474678599403768, 0.25402760642982425, -2.2486393802668876, -2.7207532757187054, -0.018838831381441115, -2.649430564247809, 0.3752615717332738, 0.005713208673418614, -2.075290924840174], [-2.812218122900818, 0.17584395714827383, 0.13265134368100004, -2.8043703028583207, -2.9433412851510243, -0.6965173851563088, -2.8626445820773556, -0.4499140545192073, -0.35713100670791814, -2.673026780578055], [-2.776845723427192, -0.3254513888959203, 0.20375162781116188, -2.7801876930626546, -2.807975671731867, -0.1761271902523453, -2.557858780301847, -0.0442046503234854, 0.46371097675101874, -2.5093473267997513], [-2.0680299884037043, 0.2614740195755815, -0.1188991840790034, -2.1171110310971124, -2.387404087449327, -0.25156143483362386, -2.37850425297352, 0.08934418221179938, -0.3860122704513336, -2.737190213868423], [-2.8224781665238345, -0.13523192909638887, 0.24966005596933957, -2.6912358238943246, -2.6368694453279162, 0.10972257447712354, -2.8230306396536013, -0.1537075474767804, -0.047720605140390816, -2.694283248078412], [-2.544684467022604, -0.3827554764783203, -0.5002178831532773, -2.392987899315636, -2.7337018724266944, 0.2708822455333854, -2.3387087975783283, -0.44641773816755637, 0.10155205120828245, -1.7183490998093143], [-2.65054144219102, -0.275079753977036, 0.18307150865345598, -2.6529184892972757, -2.2964552339708093, -0.5899689330750177, -2.4869732972013385, 0.32994267873759064, 0.1680578889236184, -2.259439807728282], [-3.1811558532118474, 0.16896452825800404, 0.2759138130503635, -2.1069261686564107, -2.7092020589756856, -0.6103894371396669, -2.6828180271629556, -0.0955645085286637, -0.7086479472746292, -2.4428108448217083], [-2.816371878279159, -0.03598134621588079, -0.2585433442315857, -2.497873548368563, -2.615641241181319, -0.8895498631478778, -2.6127690083941646, -0.27821793884788226, 0.10972720629272847, -3.060509348229956], [-2.0846309322787695, -0.18425774189722513, -0.08662420738502416, -2.326914503807601, -3.1184654053823184, -0.27216038140249577, -2.58324414674542, -0.3429031099267914, 0.08166413783675454, -3.158341674493358], [-2.782909445563731, 0.15395210138430288, 0.036732118293756694, -1.9527640433537552, -2.5870553042240614, -0.40875686829845015, -2.907960012731251, 0.2451859696239283, 0.3643694165726222, -2.5489317432837773], [-2.682646902598732, 0.5390104332255232, 0.046021976995974385, -2.2480647703226158, -2.271976094266011, -0.457350892445827, -2.4153854614099144, -0.02088856970685534, 0.2954425848071708, -2.2305847877608564], [-2.7073586837989656, -0.25129170087962305, -0.41491926739428847, -2.1552329298669597, -1.9703304032140265, -0.12821209674710413, -3.0897867603650133, -0.10582088487484773, 0.11351064087705698, -2.6601237967915297], [-2.742529481034227, -0.2466331205435949, -0.45032265593124365, -2.4220893758691315, -2.3846019174450026, -0.3506519861428254, -2.2715769233879155, 0.33045450436017265, -0.3145403389593823, -2.601297105291843], [-2.81686242562066, 0.3060963243800319, 0.17192996482915054, -1.986868550081572, -2.761027897138285, -0.6006673924376426, -2.5681009559205497, 0.027296752411749513, -0.3494474131635246, -2.5196634536966203], [-2.9373342357651704, 0.05868161341380821, 0.7581656801261626, -2.1836856516026537, -2.4321101022059133, 0.2914873181024978, -2.413379349634529, 0.1655065220379302, -0.16940125765853686, -3.0241574337749855], [-2.8304239376287974, 0.35464463760338893, -0.21884815184257972, -2.602306224587484, -2.6777241419405766, -0.520936742363838, -2.5722812601929856, 0.39393166372603955, 0.14640319568165724, -3.1324179086466706], [-2.3316368795700417, 0.0896254530210911, 0.3241768233169484, -2.4486759522403507, -2.479013324466381, 0.12790780262877025, -2.476758699085983, 0.3476526870200941, -0.582423934988598, -3.1792063387922185], [-2.7364649683895985, 0.20283672261349597, -0.42378554479652497, -2.579399991161311, -2.2888511553175244, 0.05285094264764337, -2.780861482644434, 0.08384168090392484, 0.1681158247915676, -2.2017534781853327], [-1.9283445251136628, -0.4545264725676608, 0.9470998626201977, -2.299877836812856, -2.4873442334114886, 0.573425970599473, -2.6553826754407086, 0.17852625789366422, -0.06814546816643063, -2.6591215759919424], [-2.683052736620467, 0.08789142379888275, -0.3071067687158, -2.1603384064634685, -2.4792598587609387, 0.12397168552412613, -1.7253425987107507, 0.11745264949764472, -0.7697938475796963, -1.890412260238282], [-2.564251262065956, -0.19275004087184297, -0.03505749560260765, -2.158902429638638, -3.0527950179519063, 0.04769321458602377, -2.5664254028790605, -0.3299321241410045, -0.35760614685062914, -2.5982858410995147], [-2.7004625152414756, -0.016411500239491502, 0.2913319398481945, -1.9811366091994178, -2.787750400930811, 0.27499088441458375, -2.460284259233603, -0.1435094019656096, 0.3211584857711842, -2.4998183154353573], [-3.002797438328298, -0.6267741219591279, -0.02544474164719323, -1.9927459655428075, -2.0592351102335025, 0.17020632782531386, -2.4011898562234055, 0.6366829631081032, -0.19326129078606155, -2.528172759713459], [-2.589424621650844, -0.12098419783001876, 0.5314922400313203, -2.8007143494005557, -2.1000637279977417, -0.3119271639573219, -2.5790606127153497, -0.32367797555155403, -0.3191356123552589, -2.7143723907602535], [-3.003802129877013, -0.16834408961414804, 0.25917353349143063, -2.4847384727662987, -2.835085704678146, -0.09435066631592182, -3.105490843113178, -0.5023830535421597, -0.023874997243151674, -2.345698733825717], [-1.9339138413498485, -0.6637827728437536, 0.5977206264660042, -1.8566882163944485, -2.0379594257966067, -0.04396331870668331, -1.635293596657686, 0.6383747389207406, -0.563895197739956, -2.7598281410458037], [-1.7946654762703174, -0.36086858507400704, 0.16449360426837817, -2.0640806518600097, -2.3252500868563013, -0.48603580050295486, -1.6834400555561988, 0.24379426011064576, -0.19981070241674861, -2.253855212084134], [-2.3281408519671913, -0.014963451091622077, -0.1724421422916364, -1.990629459003564, -3.001476752332016, -0.32292396996268946, -2.5981059317748603, -0.7082459030245316, -0.21081307977957014, -1.9865594777566966], [-2.028225504236852, -0.47694739908074935, -0.17305960178218077, -1.3530106740067431, -2.415348568252913, -0.3660346716672995, -1.8527564448566138, -0.4167714907078055, 0.05274523394784079, -1.4922817857074953], [-1.6882771552654792, -0.038021775372262895, -0.13207759468713498, -1.5447355727632226, -2.686366182824297, 0.0051844531563483565, -2.5082456326562546, 0.09835729998805699, -0.26701646293624165, -1.440680670535287], [-1.8385745009751338, 0.19964617342193325, -0.023343937490199685, -1.6027619678981688, -1.7533648846404872, -0.1566147611452509, -2.256659517175284, -0.4941188567780961, 0.30056855434574614, -2.042122577899589], [-2.1806261418744497, 0.03716268130367725, 0.12560055781014431, -1.851031188570016, -2.147285632321889, 0.01226296889721945, -1.8779497476623874, 0.20198673637410916, 0.3315445569979057, -2.340449452603103], [-1.8570220769660821, -0.37422217690432924, -0.019532245969528367, -1.5695669073412053, -1.9868694350985023, -0.42585924155640736, -1.9444857796024404, -0.16090322077732266, -0.6671235777327024, -1.9579787177042285], [-1.8815697551291093, -0.08762891994172302, 0.007580979934918336, -1.3632357598950948, -1.7867392624246983, -0.27312990380173696, -2.184756083823612, 0.75804706227946, 0.41786028670427977, -2.385238902727956], [-1.701346951052491, -0.21033839291105413, 0.32353079520432343, -1.898996813426768, -2.111893908616826, -0.21191625150918683, -1.7756690589814097, 0.11270865737241254, 0.14684204750246269, -1.9349904570927208], [-2.2262013126308946, 0.05936455827565831, 0.12030645162804371, -1.9787234855791918, -1.326923634683654, -0.21032684856946718, -1.5551535225382473, 0.32091260023418183, 0.24726252107435698, -1.4088452841489147], [-2.2307813393204596, 0.3360012779551879, -0.5390340012239683, -1.079706701031451, -1.6402499695577057, -0.3677943749694418, -2.616911896736717, -0.4905180047065395, -0.43423627852595376, -1.7136766481313752], [-2.2649829980580662, 0.07347928910688609, -0.35994951891625887, -1.3090271182991609, -1.4615181749585828, -0.5670259250919593, -1.8888226603414133, 0.06019195517480294, 0.20488258955826721, -2.438750371214011], [-1.825435054171638, -0.022605763993142347, -0.23749673245940386, -1.133626731464628, -2.1664687248061716, 0.17620513979101396, -2.5195237367196097, 0.5325505086256384, -0.011914600261326026, -2.0383305008838835], [-1.2011092494820976, -0.16220094687399728, 0.39943428262210384, -0.8248922094593456, -1.11187047950479, -0.42481005440989317, -1.8176525141558975, -0.3801659062547272, -0.3343509142583735, -0.9787592932410767], [-1.9509170927273722, 0.29016577331278637, 0.27618543230135845, -1.5152097311388713, -1.969689497222498, -0.35590892320439677, -1.463478226882481, 0.32508255354194443, 0.5781329923506315, -1.6822437385547013], [-1.4314446815717052, 0.14566274833502388, 0.29723595009911735, -1.3837867947017513, -1.4529246261734166, 0.4451610790055059, -1.4353563913478573, -0.1175524123662308, 0.380646781492001, -1.5753594296876037], [-1.4183062508197393, 0.1966903720923701, 0.0038094075070390573, -0.43754069389945316, -1.39376327846883, 0.54190900028221, -1.2675169448030097, -0.3032330009202705, -0.13041170596449367, -1.3820883969895301], [-1.0935793976751096, 0.3116953462408323, -0.10760390650556953, -1.2518522557451104, -1.7971301776597415, -0.2486089185532415, -1.994104053131356, 0.42506999039165005, -0.17367355432331835, -1.9962622970371109], [-1.0881636972625501, 0.3618198770248892, 0.3089482974884568, -1.3284377666898688, -1.6731388751833014, -0.39698188179196003, -0.9969725964054369, 0.15191590030620447, -0.16849222696912422, -1.0585357622082898], [-1.1144436077617306, 0.7137471073540472, -0.10758786535689246, -0.7611295766957231, -1.273609068640357, -0.29371907905872696, -2.0975201609410106, -0.09790476372098669, -0.05444918556016478, -1.5123134869957846], [-1.3418328280555207, -0.4190881801031533, -0.816956780104797, -0.6241073612306672, -1.212195788743087, -0.34334633909242385, -0.9147318148782032, -0.11961334907588815, 0.3659675518312046, -1.5121020768985505], [-1.1523333551829569, -0.2852061169920406, -0.39276071751716907, -0.7875024450152253, -1.8258650584952463, -0.16816548595952435, -1.023732929363641, -0.16763545061384932, 0.3718203157100641, -1.2465189063137816], [-1.719877626104747, -0.1798988131826334, -0.037712758737008786, -1.6033220856418962, -0.9783770174011565, 0.441994666272711, -1.7404742812586291, -0.4984530948089695, 0.040028876780998, -1.7728382734459665], [-0.9828231028611936, -0.43711147960062546, -0.010511085631636082, -1.4836392865431909, -1.4154869186672054, 0.021778535577268707, -1.3295991217898961, 0.0868062210883663, -0.086684090559529, -0.8489053863371759], [-2.2411956054858764, 0.004497812290443097, 0.3803510488456487, -0.881115947434529, -1.554840893313608, 0.47657788723049477, -1.7286418721465353, 0.4630082568161752, -0.159977598711857, -1.9716736279164382], [-1.8080910965067212, -0.1011661200770447, -0.5205248352295112, -0.9308650394235551, -1.3827459725355218, -0.31340753128207244, -1.097411754250052, 0.43123296767502983, -0.06770959586074786, -1.1018819697433053], [-1.5460054733971496, -0.14220529807697496, 0.48458433695613085, -0.8263234927230767, -1.6732962746097717, -0.24972581883582706, -2.1813110603923493, -0.04025286743528043, 0.40767110944891066, -1.2743727526062036], [-1.465252991763347, -0.034224086750276356, -0.3576674359591909, -1.1248195087834247, -1.1298608066862141, -0.06462460101147038, -1.810390440704292, 0.2891545109620152, 0.021472208846532198, -1.6568915985140371], [-1.4271349196013643, -0.2524636238881378, 0.044151914950614594, -1.2702912552814214, -1.1884284584035671, -0.1973375943387633, -1.051420386872428, 0.02441961015225279, -0.07606143313287023, -1.5962588751818516], [-1.0661499778237324, 0.014548570619654736, -0.00041311091050667245, -0.9826404557737867, -1.3706320584143734, -0.1295551501802307, -0.7163188438014545, -0.49657986442377194, -0.03347132446767664, -1.2238676578681333], [-1.199963832200195, -0.028505254991611044, 0.4042077862973645, -1.352518924891099, -1.9346518605432506, 0.03883393241633136, -1.0264278773837157, 0.3275761440254336, -0.3727237514401316, -1.3062205390388772], [-1.1090700561842175, -0.41237865755564923, -0.11371613597157476, -0.7265740327393437, -0.9605892038527368, -0.11464595726597565, -1.0566319018258885, 0.1836044364866989, 0.023632186909251462, -0.7330285676018067], [-1.0016621240094028, -0.21545664503071568, -0.06187288937155339, -1.6019663992517077, -1.1929990384191094, -0.2534483705553881, -1.7291289288454312, -0.30271199742529864, 0.14928847389140468, -1.070078892269822], [-0.7915510197651797, 0.12586447239240495, 0.3157916564739411, -0.5287052305573153, -0.7572911564682077, 0.21452166910044634, -1.3196236146131821, -0.3289483813270855, 0.6667129475431512, -1.332949837201161], [-1.8252681968497186, 0.30240356075703223, -0.29335937947821056, -0.43337949632673806, -2.069188736973453, -0.27887036726722336, -1.3360408647589406, 0.13463652002319548, 0.13282965611176997, -0.9588382402876505], [-1.4685006132214293, 0.02332277997566269, -0.20756913143442848, -1.216561829416598, -1.238047709396022, 0.10250473881773167, -1.0377109100013127, 0.2643229621660523, 0.3230064297476674, -1.899397067347533], [-0.5875450114624999, -0.38257735469627285, 0.46480940774793994, -1.3814713456889156, -1.4973747016592793, 0.05266668968763956, -1.0928758484947132, -0.22244879242359397, -0.43370970063281317, -1.3049103134798026], [-1.181353934970911, 0.002544541220144969, 0.05636264924288127, -1.1984423235740627, -1.169599284241531, 0.09610765429767876, -1.3561919212706246, 0.10614689012856408, -0.17656266640639082, -1.563713661151474], [-1.1108913241345864, 0.060234982508975715, 0.18882660272621518, -0.5829436823111954, -0.579255183890907, -0.27598655608825773, -1.4339161844122046, -0.08868068903568622, -0.4008484356007471, -1.2514046091638331], [-1.1774343301177475, 0.5119420387192577, 0.22820298431534486, -0.6102834422519888, -1.2676608002876784, -0.18972544491979804, -1.2657344568803228, -0.18844628426095306, -0.47836004120510667, -1.492586561897216], [-1.04465792358062, -0.4578575029470205, -0.07581596490593645, -0.08054180293446171, -1.2305754363598218, 0.09484750511639595, -1.214627259399736, -0.05317568637779828, 0.09497914318683802, -1.19488110428498], [-0.7020767894959237, -0.3971608814901067, 0.4081653403819488, -0.3585634151858738, -1.2084158877956783, -0.25403559095067574, -0.7905060825697182, -0.44104253947412886, -0.035865584264175215, -1.0887472062425416], [-1.2017199878484535, -0.8047675385107003, -0.08363506423910068, -1.092530958728866, -0.8861076597660281, -0.1428785776419247, -1.3767760426197384, 0.1653699367649435, 0.6793696260978532, -0.8771222248680519], [-0.6913952623314809, -0.38695326244937917, -0.40837321450024466, -1.0944256028895123, -1.1377178115064124, 0.3662548612369241, -1.2103682021165532, 0.2695902331708231, 0.30394992048551983, -0.5151309785804048], [-1.4436147864546418, -0.17018870276919007, 0.18577061966065841, -0.9833353365810382, -0.9064448991155001, -0.435773172717553, -1.238384042515413, 0.43975266286461256, 0.10136327635363902, -1.268504041382552], [-0.508841665583388, 0.11998850662180707, -0.010477128052630893, -0.2900264234146041, -0.9441122654562283, -0.41819956495758925, -1.0298329992829445, 0.2588747784795457, 0.21580709251254723, -0.8135422672047444], [-1.173762426261684, 0.25202773157187286, -0.003595372280144358, -0.7807630196266065, -1.121168672457689, -0.524182566788901, -1.7225997513577045, -0.2579108079728447, -0.3568467375637117, -1.101314939167132], [-0.7608851769499513, -0.20369774391162335, -0.3281627106699727, -0.6399615726288318, -0.9706223453621944, 0.3522414307739792, -1.500886603508878, 0.0006958508759963218, 0.10456048394149865, -0.4405846830259814], [-0.2805554184673727, -0.4104007302389518, 0.755113878305785, -0.7434181807739586, -0.7269572539640492, -0.1144716254478008, -0.5402970188311774, 0.27169626237266226, -0.3501855549114958, -0.6903739434702411], [-0.2994391507992078, -0.43902401356436305, 0.08755181960444156, -0.44460214241465734, -0.7370566291257945, -0.5462509159102845, -0.46257829446816084, 0.6134957705527059, -0.09965685203969546, -0.6821399806293349], [-1.1388078606725933, 0.1037675811199947, -0.436006334433419, -0.7397372990261166, -0.8217401512591446, 0.12986945403585387, -1.4563297740460688, -0.13561701758720263, -0.17431127457072784, -0.23008521442796404], [-1.05510370195623, 0.2971189677169406, 0.09215428709168998, -0.4590453938642784, -1.2780335241193381, -0.10888446077116316, -0.49319021970581717, -0.67535340225566, -0.08591131999383553, -0.6591749714022834], [-0.5920725065821123, 0.14992977575984137, -0.35483859079178875, -0.8287188807076159, -0.6260338534634283, 0.03638596705103501, -0.9548655028378454, 0.05011501080211706, -0.032646165023030124, -1.0739865564163427], [-0.9600249811603092, 0.09290730055791327, 0.3190622319727468, -0.3932099994968347, -1.3070698353925498, 0.2202211332697607, -0.99759727776423, 0.10714194003586468, 0.4041859354393106, -1.0406498266155053], [-0.8944882844670332, -0.3738597750210852, 0.32804690209498616, -0.8715065283051546, -0.8374169266918228, -0.4099703263853429, -0.9262717532711459, -0.3277914006686531, -0.20352105772706064, -1.0061552996258536], [-0.915120993942321, -0.15689502226550567, -0.15434728693239005, -0.6011632536764882, -1.016015709165525, 0.14492679180535048, -1.0004619028037485, 0.5017735640522262, 0.2526494419419543, -0.9786539694548229], [-0.24967509971568128, -0.015149185328580568, 0.23837381681764178, -0.6828284732496702, -0.41841265607221323, -0.41257367468541856, -0.6610098964924207, 0.021905893541578833, 0.3848189114649851, -0.2132016834879485], [-0.7287365939848813, 0.25056911185390657, -0.3313715863032953, -0.582858911435213, -0.7777723694150112, -0.12359985834626769, -0.5211967667545334, -0.059138841110414155, -0.19211781655846732, -0.4646873634508087], [-0.6206436412392056, 0.1982104552541495, -0.06399365077451384, -0.5462137701547722, -0.8829061191949028, 0.09595703565735961, -0.9070332895639172, -0.23538534222523502, 0.20027090644202847, -0.5662172136626996], [-0.7338901951092918, -0.0534086465363999, -0.007228909694850332, 0.073563914110755, -0.1770416334710814, 0.12199390649139179, -1.0036864078176344, -0.37638017224795056, -0.3386556560888913, -1.0265008446522437], [-0.9279466396671388, -0.25786897174404877, 0.11738588290549222, -0.5074608484033876, -1.14229983185466, 0.2227293953871915, -0.4987364120818502, 0.5314707212329282, 0.03564417043586084, -0.3706296185718572], [-0.9891569289650491, -0.14388440009395104, 0.12183222541706216, -0.7520543762369648, -0.909199786405971, -0.15551981491973366, -0.7539307625781234, -0.16921012502752938, -0.30071489239646193, -0.7155897227727361], [-1.0269214325853762, 0.25247537131254494, -0.451489285241437, -0.5549894183008578, -1.187810827399154, 0.15787883675254596, -0.8599608954831919, -0.26311112668479114, -1.0417609931885117, -1.0940399432952708], [-0.9686285380626537, 0.5422697412003875, -0.4899186604360441, 0.1637766477819603, -1.0767127709046358, -0.22787559887526138, -0.994235416946374, -0.16391537234491013, 0.16988721206069468, 0.01187288267460083], [-0.4510744493487606, 0.013747136314694111, -0.09599228838505298, -0.9354153600591427, -0.4428552178310623, -0.017523162649645988, -0.5675908293891917, -0.7284990695977244, 0.5921705794575445, -0.9826348082737875], [-0.9098053929147825, 0.2679308221621534, -0.1170500216769551, -0.31341838960027746, -1.0764744109301398, -0.28882438306724734, -1.171450981509454, -0.16637067903793334, -0.047343196513542546, -0.951635628669165], [-1.1929480145326192, -0.043860757761747624, -0.27503708364710583, -0.3359406602614606, -1.2477747404068682, -0.09797364505312846, -0.6234754971436269, -0.23542263931488847, -0.00039303675408211526, -0.9574631873220737], [-1.4687338780911101, 0.28287804825461527, -0.29159492079335, -0.7372535669160181, -1.0214870525864528, -0.16957591652948198, -1.3450112226965687, 0.5591838131512349, 0.2803709798205013, -0.6766906141865033], [-0.7980878960455806, 0.04185734790710825, -0.13513474017105512, -0.5309910777056411, -0.9031292084631983, 0.6902124140389466, -1.071886972341329, 0.18460962579306286, 0.4880533295088371, -0.882405515918692], [-0.2613738331404004, -0.09285653519842588, 0.19119319892090111, -0.28223877173016676, -0.6807573907184807, 0.04453125282939363, -1.1058963673522269, -0.4577645755032743, 0.06322600135335446, -0.1487438322490317], [-1.3530334011468517, -0.5519482119675327, 0.2824153826216488, -0.4539972312466013, -0.8179275544153166, 0.6576862141411172, -0.3153299982232858, 0.40137362230237544, -0.18095359370282174, -1.0052425123058517], [-0.7899687741894721, 0.12302325865350666, 0.26737075978176633, -0.7135162772082688, -1.2554436414397294, 0.283966773043634, -0.352780466976867, 0.1690520376440912, -0.29195844345711525, -0.7550913026689914], [-0.4546144441419255, 0.4893357890644041, -0.28473942729208696, -0.6397105443353973, -0.3655272933303147, -0.2403876358836381, -0.4567071612752993, 0.7499519873164319, 0.005667204177492836, -0.5707717565012503], [-1.3370247947537215, -0.3983016386361218, -0.28676979991444246, -0.3680097739678975, -1.102534738256322, -0.2278340703240278, -1.1659235547484907, 0.27422757940271947, -0.1848021660071556, -1.1558377276645888], [-0.3989023070767285, -0.2803574995703855, -0.3639090410370483, -0.929606881239945, -0.6978745820371288, 0.06123259768212219, -0.6426244673716056, -0.10681056537433539, 0.43698932115359945, -1.1693720275109138], [-0.8024393022705082, -0.04574200022697884, -0.3819848567062509, -0.7082434298796754, -0.6678577762597049, -0.7054685721861288, -1.3829257070323604, 0.23987339870142024, 0.32546856363603227, -0.8101199306540618], [-0.7492533197489627, 1.1099738773860823, 0.8901091699316298, -0.3606528298032432, -0.5301758025721801, -0.12695800097990403, -0.4385688119961077, -0.5955542879690617, 0.22000751625763126, -0.29197262874133223], [-0.8585189809976707, 0.1215108280163988, 0.13010566239167284, -0.4802280161274938, -0.6181754501402571, 0.031630477094777315, -0.6958816473774126, -0.5109651734976385, 0.07746129542762276, -0.9708112820207343], [-1.5770886257765777, -0.49009722686374196, 0.08450186533307903, -0.5954431813785483, -0.6271690110627816, 0.3442725135264964, -1.2121465802593525, -0.10549108900329596, -0.10064528673881885, -0.7306229684860314], [-0.4756416591006334, -0.034476334219610986, -0.5346358881069598, -0.2826828598870007, -0.6761238295410769, -0.059290504606343906, -1.2752386883652096, 0.5855387939511094, -0.15879925955823881, -0.5009406780260441], [-1.361489546079072, -0.4639578213327926, -0.1333104887620951, -0.66764238693785, -0.5262627106209611, 0.19976827488977328, -0.49861985445703866, 0.10034797937304758, -0.20213163860263933, -1.1879530137268794], [-0.32988322607920656, -0.31046986874642046, 0.05788617160542598, -0.4314690455279622, -0.6883960070871055, -0.5219475929058783, -0.3127550378605469, 0.4616868252217907, -0.09916212348374474, -0.25570186417658647], [-0.5032723726967356, -0.27732024663901034, -0.2798581864969206, -0.5755316702767124, -0.5729938569315707, -0.1494179188427296, -0.23991608173342724, 0.525949756289075, -0.37623357047670974, -0.7317310709635866], [-0.608567567802325, -0.17616044625608931, 0.4473091143637269, -0.4901678267763883, -0.13126661721512328, 0.4746932762574968, -0.5914107813966836, 0.014452062107777441, 0.404757196563829, -0.42744065003146114], [-0.9429001388023586, -0.8953028008427101, -0.1388729956351557, -0.2534346393912173, -0.3371417063074864, 0.36834867225494056, -1.086460303425973, 0.0017238209009018193, 0.2500341177295601, -1.0625877900784655], [-0.3319038073530147, -0.2332858225321287, -0.04752075758169782, -0.6961494027064777, -0.9177495461338917, 0.13080314523715433, -0.6584318931391153, -0.33282735190703294, -0.45238125642603066, -0.8523315834411218], [-0.5935994192463676, -0.3335133445021999, 0.732011266351256, -0.1537217763952472, -0.4473819178342271, 0.211066763981738, -0.5131029806547701, 0.069346020602587, 0.49724731396777694, -0.5142181469673854], [-0.7783355803476562, 0.1486967012182438, -0.07153711058525886, -0.2636403635911987, -1.4548637000494384, -0.5557615572411163, -0.0051758647465240054, 0.5985246819819603, -0.21579659006232818, -0.3227709997583169], [-0.7274327803644519, -0.11424486226763332, -0.09966469628743262, -0.07353795732475026, -1.2022496044790787, 0.10080732635816658, -1.4501271257153412, 0.4236699430808185, -0.2545993756166992, -1.2369012933484929], [-1.2998831570175164, 0.08354738618134142, 0.07402374566191208, -0.37388008357165053, -1.3235336424257451, 0.13898861683633024, -0.2956848567756192, -0.41611055339713665, -0.23556879820770926, -0.7216490603230915], [-0.7767166836362502, -0.23753341431570124, -0.3009068453788736, -0.28345167793795645, -0.5867295195299078, 0.010618045704437695, -0.7486269954844772, -0.14516941824323715, 0.42255892820130597, -1.1215727466625502], [-0.7222396160786053, 0.4234510096399667, -0.05087539674921078, -0.5105323397771996, -0.7823789977517197, 0.13026537853893133, -1.0870335134522953, -0.1375354361564979, -0.13158549210529272, -0.9551600277930461], [-0.9541988723651508, -0.26941666567164624, -0.21689346186683148, -0.15655183299644682, -0.6553485741408317, -0.08206236303250952, -0.6971960827867105, 0.04839480927480239, 0.051169368279571976, -1.2052132139193619], [-1.0358793927258745, -0.15443068627051104, -0.4878641881323681, -0.5724704599585314, -0.46510648681744005, -0.2244097834875888, -0.49036430014285687, -0.18432126288951056, 0.2758208368087705, -0.43748854333010084], [-0.9925958780341806, -0.0590438062870494, -0.14697816887318946, -0.7071227152168924, -0.750864580116652, -0.5376352226451356, -0.5643101182874425, -0.23666335741285757, -0.06791820327061604, -0.6101238241559158], [-0.8760807921628737, -0.09017525916414304, 0.4631856760161827, -0.6463645510958318, -0.40577866449023153, 0.2226012319460115, -0.6810101721364241, 0.05397433669254013, -0.052877008597027694, -0.8553762776603061], [-1.8446481814530338, 0.1510102026417322, 0.02257134780343096, -0.511542747048146, -0.7109369993184994, 0.026317416766725, -0.9136924998506885, -0.1683658761934738, -0.18301125903989984, -1.1125243798103326], [-0.9658151469833267, 0.3592870125007735, -0.37994337641644543, 0.25827373862972974, -0.8908083995476672, -0.7452393677084591, -0.3660447809455496, 0.11926997450581904, -0.043581218565714105, -0.6020953289986591], [-1.1744697990131383, -0.18713906785559511, 0.25998459349354536, -0.4250693562658899, -0.8560910183567786, -0.14472835490246516, -0.63991781937517, 0.4774048910436187, 0.48442919120408406, -1.0160932620428458], [-0.5141055715805162, -0.4910191870306608, -0.011814919401496822, -0.2767023629443134, -0.8537785057856326, 0.30006694441388504, -0.7515610480590093, 0.5092534023858906, 0.024238050243641316, -0.5086922902409179], [-0.9959075227317882, -0.2160322511443789, 0.47130243883030976, -0.41826311361449925, -0.7853983021466306, -0.44692571383666524, -1.4113748333987963, -0.1320160937716381, -0.36939387742371743, -1.0368068849029768], [-0.7018432711643516, 0.28777625020089936, -0.1749313165758917, -0.5327671030517782, -0.5938828591522463, 0.18854549101221932, -0.28152108435223283, 0.07895528368173184, 0.6723442436026045, -0.23984657020953098], [-0.359435556857131, 0.07927711535227759, -0.258988212277757, -0.41526417201700416, -0.5975376479620705, -0.8362283858377899, -0.47045448474658413, 0.3948486226017023, -0.45688769798471157, -0.4202906793265389], [-0.7247495818008136, -0.22323625658449975, -0.36270562598233763, -0.41756277309057616, -1.049118917193455, -0.2627188297097364, -1.276906375807518, -0.03625440989956731, 0.26980532749639974, -0.0739321569178013], [-0.5357226713101642, -0.26142035200002867, 0.2896438204241386, -0.5213971053181692, -0.6535864598803782, -0.18646780057782392, -0.5601384432730295, -0.038289210436077546, 0.7363273113926085, -0.6955163957037548], [-1.091995715038742, 0.2533014867498609, 0.1944343169696881, -0.4673183216159517, -0.8591724396647158, 0.1073560831500679, -0.24970612257750643, 0.2522916779549277, 0.19470289620684944, -0.9127885963373185], [-0.3428718192409726, -0.49358903128185455, 0.06774610987985552, -0.2925272891402296, -0.505251580209629, 0.15332367812109055, -0.646633818631205, 0.07675178553870794, 0.29641428235379585, -0.5543380576794782], [-0.36157046243386104, -0.04928760324641379, 0.3870345590841234, -0.47979910395618874, -0.5154946641876803, -0.4993805534767501, -0.7341367313990698, -0.1088959281054834, 0.4613331462249845, -0.8103192588591336], [-0.381314532968235, -0.03139605996034818, 0.22276956548131946, -0.2843624933632954, -1.0243292418628052, -0.31097817611621725, -0.749157751757992, 0.013040567023561803, -0.006949481466193846, -0.3327077599111778], [-0.9779653774449866, -0.46684566993567833, -0.04898050594727026, -1.0817567210350574, -1.244450423473741, 0.48518068036832096, -0.8862136475472736, 0.10117699024676485, -0.12229677251270761, -1.1907691329709358], [0.05564287181890283, 0.4287122498018862, -0.21400765759029497, -0.701384674862806, -0.37913916512205376, -0.10128138093694444, -0.6844422404215018, 0.15880111801544375, 0.11475537211115878, -0.6230954671186905], [-0.8742365581983196, 0.21424143259480927, -0.22833877200958702, -0.4005593333424631, -1.1057317800476596, -0.0623331835085573, -0.6224803601261973, -0.24346239173971554, -0.03188435517563412, -1.0490882803433705], [-0.8428189779741609, 0.09945596353643874, 0.06860988863650398, -0.6455269635514574, -0.8062584221686321, -0.09552973033816856, -0.7144740416519968, -0.27514128559445816, 0.18370304194998757, -0.7417148275867165], [-0.06898546166398516, -0.08865845321619024, 0.042990720982151086, -0.49089219634216524, -0.6684918272784973, 0.2739120339939703, -0.508577843578242, -0.12510827113197, -0.10808800819767053, -1.1156831985192075], [-1.0857113417516686, -0.08765341655126753, -0.43131755031135005, -0.07520212118374159, -0.7857005487312785, -0.1334671729690064, -0.6753708132691356, 0.11013144398789707, -0.015320031647444957, -1.3143145677370327], [-0.9466186644193005, -0.5499194910169626, 0.09574751183536437, -0.5822096388355047, -1.0831117698275274, -0.3093615266634016, -1.04831739950267, -0.1677175166322454, -0.009252508953439431, -0.8405787693629823], [-0.8578466314319431, 0.2644892174771983, 0.4501497076064436, -0.5744225588521191, -0.31483422435870106, -0.05366458612412614, -1.4176594898895623, 0.9547485134011412, -0.08661169390940836, -0.9792894799872434], [-1.0031525118777198, -0.021415053988556934, 0.15329969124664033, -0.2755459424019442, -0.6526720839560047, 0.10170346134509528, -1.2170819431152344, 0.21444616215193996, 0.12414391971151739, -1.0174041525586235], [-0.7253632421278137, -0.22924756374126432, 0.010204801511250637, -0.803915090170788, -0.5735652343257246, -0.14773853989615238, -0.78738887844816, 0.14504870346585505, -0.8875300876490845, -0.43042607010007194], [-0.8069719280536989, -0.4313455620406936, 0.14866485641738833, -0.2551693939539287, -2.2900342401934095, -0.11104811864558392, -0.7275003412932792, -0.2022297843988308, 0.08509404706077492, -1.4578396356810919], [-0.544740977452788, -0.15766080663760584, 0.21930849266351432, -0.3773708911826835, -0.5522884895087239, -0.03721814645645655, -1.0378398361774541, -0.22213270594473666, -0.060423201141789576, -0.7746486692709859], [-0.7028485095120638, 0.20748288340862717, 0.4025439487924893, -0.47992157325423296, -0.9953938076145181, -0.5150226808038417, -0.8012981464516628, -0.13857913767615357, -0.5131404306873817, -0.2025926394519365], [-0.44194157933150174, 0.43010734557401525, 0.07771787125762304, -0.538636276978124, -0.6620376734486735, -0.196493587769375, -0.7794745389098124, -0.5523863643719664, -0.3304235082825775, -0.9081042347134685], [-0.30882962826749794, -0.3280459032441938, 0.37316167933087985, -0.21538770479175956, -0.6466605550917689, -0.5385058931940272, -0.5342871265331645, -0.6121142746071584, -0.26615940547448635, -1.3463109035808591], [-1.195469290709899, 0.13315455714032562, -0.28782203611674, -0.356755960620356, -1.297665085377292, 0.2523860173894654, -0.7166471395392114, -0.1631496059615742, -0.29394180241715134, -1.5355866409173373], [-0.9317532908901792, -0.549105259250591, -0.1886517744702388, -0.5507231782277576, -0.7219901648967201, -0.14409128034065663, -0.8074596853693294, -0.0008031445565709102, 0.20919564873599517, -1.1922028754369194], [-0.6951016561699447, 0.306118202742311, -0.12425675008813306, -0.6696209924982938, -1.006317823395639, -0.23152544888373983, -0.3097088450416116, 0.3373957971773063, 0.029869018975026845, -0.34640841259086724], [-0.7282681395767248, 0.1537557782885468, 0.2294489354613591, -0.351373695595002, -0.5340030420270832, -0.3905432599097608, -1.1664375989763762, -0.49146406122402114, -0.07872895712586343, -0.40434608609763883], [-0.8337468057895348, 0.13953235929980798, 0.1790973340176657, -0.3395000474273428, -0.523827708945759, 0.01866639439567193, -0.6727708440651933, 0.19254850928986442, 0.198773167018175, -1.029732207229388], [-1.056658393010912, -0.01382678010482175, 0.7700590232732943, -0.12371551158298595, -0.8381698713196701, -0.46393874348273023, -0.5478712138676536, -0.11295226111090415, -0.0395807943783996, -0.34509894281998976], [-0.9298208745062934, -0.11195779009123255, 0.4625954711177234, -0.5939995597912827, -1.1092699601269187, -0.36093781980442374, -0.7431307069367583, -0.8466345308067729, -0.04847493245010739, -1.4832676196667711], [-1.2280464862003384, -0.20486900899195812, 0.08118888594862021, -0.4256481038441864, -0.6332699412266086, -0.5436135756213518, -1.0425002652389366, 0.21732790964381155, -0.20839603271339482, -0.9481052600250806], [-1.0306242341275316, -0.3240262277262453, -0.038601568390323235, -0.7429706783363669, -0.8413240901208144, -0.3459408558799119, -0.6861266652722787, 0.1805797128464284, 0.35563031613850077, -1.4469106093905424], [-1.216063190561528, 0.10453189016695943, -0.015307464701153569, -0.5499770199982004, -0.6968151032145592, 0.011255097147344566, -0.7010045750915472, 0.4505774134679286, -0.270645067112246, -0.6058378419301059], [-1.1844823128517543, -0.1393936252286891, -0.4810984512315239, -0.9311768991644312, -1.2754314974287317, -0.5421571359570558, -0.9306318487200353, 0.14184427189632584, -2.5926093435367403e-05, -1.421339449804495], [-0.2121891749560507, 0.18925876799365707, -0.07211222963210025, -0.5130207387456239, -1.2560813764839196, -0.181651941688225, -0.7830516292755155, -0.2752459188031304, -0.280223075706102, -0.9729765802966132], [-0.7286830764962192, -0.30956623937617544, 0.211739604491964, -0.8319544061021994, -1.029605072473743, -0.41126730116706706, -1.3328610832080225, -0.04460955742096242, 0.15625752845859328, -1.1064125744118722], [-0.718562630108909, 0.27028775339097655, 0.26134402210783614, -0.5811937743152185, -0.5683560510360637, -0.05940105855603444, -0.8260769124168091, 0.23275860166968168, 0.6169224123934229, -0.6471316078732687], [-0.767445095145738, 0.2803104933551921, 0.028848735025246392, -0.5173691701444587, -0.9136603220836643, -0.2664562768917229, -0.4228412467449853, -0.041228679189542136, 0.20046336207353466, -0.4937359994230511], [-1.1846415879653722, 0.2470011001477108, -0.07677198545734924, -0.885088871742031, -0.998824130242486, 0.10823514244159116, -0.506950567529553, 0.39018491854150483, -0.30554689626300374, -1.3535647155859596], [-1.6635138576048585, 0.2981811761996551, -0.23660593879535574, -0.5107473384458596, -1.7612880553330599, 0.8373371509551867, -1.098934196083873, -0.2609861406948984, 0.11533465901111313, -0.7297795938990921], [-0.9106865661577569, -0.15624145358873665, -0.41982593812826974, -1.0941183448660925, -0.8637030559652844, -0.7378200727875908, -0.36474909994006244, -0.5039726558924156, -0.212901919072112, -1.4335905264773396], [-1.2178789007043043, 0.0502624783330449, 0.23524308401411942, -0.4531843726948363, -0.9172475818991951, -0.14954647165107668, -1.0828400728850451, -0.015101179852236246, -0.2293976135437616, -0.904155116181443], [-1.251410229925795, -0.18950566678735553, 0.340264189539116, -1.0251662340544268, -1.0934704349058624, -0.14142173331134483, -0.8487133192686686, 0.16344486568072727, 0.09449261010651622, -0.8174464889981705], [-1.2227737735631485, -0.0031845667912763533, 0.11737678019274543, -0.9364922998307285, -0.7312195369685014, -0.26237984996517366, -0.9963723847640218, 0.3748617308354862, 0.44496609486656685, -1.3702783047344962], [-1.5703256954572913, 0.13097105541715232, 0.0651251306017875, -0.6495212529092735, -1.0042115349565195, 0.008850795001106887, -0.9492938565788259, -0.9112243137390746, -0.5536976216552627, -1.007038150397867], [-1.7944438416348192, 0.018425066082153135, -0.10482221581408233, -0.6979293713379101, -1.3405685650957024, -0.2945108147901701, -0.6824435491149289, -0.055130690263003955, 0.12039808273112347, -0.6218182749984927], [-0.8621085290624804, 0.36937626813906027, -0.6796354601969921, -0.9402276644325394, -0.9692459298122886, -0.07855919455163943, -1.4383836042602374, -0.10812721137255289, -0.1509793624967741, -1.8162423705860369], [-1.0085509247443667, 0.3704003539662385, -0.01770716155580495, -1.4210419210144043, -1.400558013106931, -0.21648229414242945, -1.6449756302271583, -0.5973981234622919, -0.09835241165543707, -0.935311432863068], [-1.1641739791928825, 0.06429412894194297, -0.4510606522031379, -1.1949450240145805, -1.2253408447026102, -0.06037369892620852, -1.1729473105139925, 0.11258881542879659, 0.003686023798281866, -1.0474939692252143], [-1.6531710248247626, -0.1374288047286645, -0.5873116205791871, -0.5920585423772106, -1.8008872151515498, -0.1788048819926971, -1.6202854768491814, 0.41136373393357506, -0.2522327810120933, -0.8224641477584239], [-1.5329800496883041, -0.0056247109936764655, -0.18170662100270957, -1.3048010909310641, -0.9740239377446852, 0.10259742865083651, -1.1732436857085382, 0.009920621220357065, -0.20864869100822037, -0.9901565917732505], [-1.4594915984457935, -0.1850545672678113, -0.6299869607312175, -0.6152422471378687, -1.1453104243588812, 0.45080778516564585, -1.8239342391543494, 0.35935258519642566, 0.062014840024397395, -1.1505848727966999], [-1.9222926990471316, -0.14855470028492926, -0.6709099831838259, -1.138853291635087, -1.6052677512245521, 0.14572520914983164, -1.3918874239016497, 0.1800772954805786, 0.12098621481910146, -0.9738910064382738], [-1.3251150105912994, -0.07356633863911163, -0.11021281852243989, -0.5201357870308272, -1.0827057929572534, -0.25507785201085353, -0.7885054995846917, -0.25904892018526376, -0.40448242627838477, -1.462638419238834], [-0.8099228527874384, -0.1794125279120824, 0.008420776129296877, -0.7343221019845269, -0.9925116092401974, 0.04785072783895668, -1.011873745676719, 0.04546928281788198, 0.008737189816173264, -1.2804503758947117], [-1.3691096103289562, -0.3612209088924133, 0.14499007800149868, -1.1255015407999298, -1.581464005979814, 0.09843977066793047, -0.7779690802032283, -0.16692750660514885, -0.11220041872944138, -1.4211028783127528], [-2.413887269301807, -0.017011199017468774, 0.22255236187578337, -2.4239569882970664, -2.275818927160171, 0.1972615350979392, -2.7280471108677937, 0.08726066142685904, 0.5666403020303561, -2.327069877023563], [-2.283943025002486, -0.042959231729797175, 0.23150517988153121, -2.410022559531861, -3.0069878808289823, 0.40950704527771575, -2.1480687307460977, -0.19211369463903405, 0.061986616095788934, -2.517177858243618], [-2.8445544521909505, 0.105402880245104, -0.5333088214100145, -1.9878382999082436, -2.9055016794349573, -0.11948788295050172, -2.700383440581084, 0.1622865063018229, -0.026045519136878578, -2.580854192357574], [-3.4762920160930326, 0.29982664021713606, 0.2880224793042754, -2.7559059801661645, -2.9087313678268654, -0.5540217006208819, -2.6656093568012267, 0.11117262732713724, -0.11452639617690599, -2.519372509718338], [-2.3377695883221508, 0.11585194708288915, -0.10522349605789537, -2.2113967285921765, -2.3693087275320672, 0.12635422277807384, -2.664124984279943, -0.007931753126683162, -0.4009659259759366, -3.545232748226736], [-2.2340213935535194, 0.3356424151366969, -0.6647188857213151, -2.0869889502903254, -2.5134962064559034, -0.06948288221010615, -2.065499601798041, -0.024712522252684777, -0.21343635211053108, -2.9295717293931283], [-2.5914359406385556, 0.04813095156602448, -0.1557037981695321, -2.3975141177933406, -2.8542046755295054, -0.19716378518565167, -2.6574637434637887, 0.08786821517746347, 0.20530330281319678, -3.0398328871409914], [-2.373042733257174, 0.02631632762259937, 0.5066941835166678, -2.303371438620969, -2.580769788575076, -0.22249925548803506, -2.886811762139386, 0.040814828347846936, 0.4055726501699851, -2.3854630051423062], [-2.5148229041658388, 0.21361039502778964, -0.20334328012754152, -2.451960767229405, -2.256128067734328, -0.034047364614429455, -2.7252204779257942, 0.5182781931239752, -0.2234886405690074, -2.591700141845643], [-2.678078386911564, -0.21929568257365767, -0.12756915834107943, -2.002577278471362, -2.406676922853379, 0.0909498017215219, -2.6518971670397824, 0.3824614348742978, -0.23296389850528607, -2.5928147398939885], [-2.582805403528697, -0.4458210654096598, 0.15688304102843545, -2.5657111273907374, -2.798400785897105, -0.029716030015630626, -2.786717931703015, -0.1938776295180757, -0.09944989034778426, -2.9990229137095294], [-2.058322894524583, 0.19356762572740308, 0.04968318123593309, -2.5811695693902577, -2.292302768820779, 0.13569921271984692, -2.8168329510506998, -0.21142360548308295, 0.27229526406166016, -2.081334050968211], [-2.5866547459618, -0.11792473296523862, 0.2982418271868127, -2.025889427686552, -2.483190408360941, -0.12457768565983045, -2.7405825627273606, 0.05667527182180387, -0.32580204789507605, -2.6125955828940493], [-2.1995024782047423, -0.16779245407216287, -0.058797521872336715, -1.9917821848948556, -2.590480691277492, -0.29715669751001395, -2.4999313331698945, -0.12500146123434794, 0.15607135873997152, -2.3884237876919414], [-3.078117467686702, 0.09739977578042026, 0.23996827499587947, -2.3084641302813287, -2.8216703506333656, 0.27801994754583514, -2.2186594899156824, 0.04767149626942974, 0.10815071913316672, -3.0088119575020387], [-2.7087172793758842, 0.3915148630057558, 0.44346765853174885, -2.4152275357098314, -2.9829618162642366, -0.48671286832561467, -2.373611312119693, -0.13225963200804303, 0.25859766653511207, -2.1306809701647476], [-2.5396289926106066, 0.2510872085821636, 0.3782421763770411, -2.2504485157935883, -3.041651753069399, -0.0939967358820151, -2.254022350881397, 0.06998728460855953, 0.48263969958728525, -2.991633326730223], [-2.6304461962913868, 0.3483167563097573, 0.19663832733886208, -2.5815917985666883, -2.8871799816229657, -0.31675635795909085, -2.6648746383830493, -0.04198883375591567, -0.5066646730767465, -2.838668330615289], [-2.6423424084121265, -0.5149548122965445, -0.046094653755352696, -2.663862492516341, -2.256917845291598, 0.5242644142824379, -2.143985190064325, -0.22896234112892633, 0.296904335235975, -2.667915193856198], [-2.696896720070535, -0.0958017485735659, 0.17733066810976478, -2.3636641245046333, -2.924721202413388, -0.2586537061461955, -3.088077698215294, 0.43470157936507065, -0.027364211919092385, -2.6804961872034965], [-2.3060029557621036, 0.2698825750884647, 0.42321887172231915, -2.408995176488303, -2.780871395424463, -0.45787371380482234, -2.8967714590785048, -0.07766946118560848, -0.1258832218577936, -1.845419533146784], [-2.4658579189543657, 0.18976838776849497, -0.07280459377508947, -2.199123008191846, -2.481624449007167, 0.05068042890069732, -2.4847001746099453, 0.39448604156743083, -0.4068722956648389, -2.4959894480811817], [-2.555799294271288, 0.13564619389995697, -0.09381720382699231, -1.8190601220998808, -2.6459273930891927, 0.1112621887264289, -2.4141881129806797, 0.795405094933365, -0.013263216202481628, -2.679848945748471], [-3.014616334514381, -0.24547928875583583, -0.3460636409207963, -2.198509967989343, -3.4048416822991525, -0.16427363744844656, -2.6769116359066403, -0.020576149003268755, -0.5329202176453399, -3.1003407279280144], [-2.9584345547823494, -0.12686129538106997, 0.43880104279569876, -2.250435975245424, -2.846697947033016, -0.4495500663790444, -2.8165228413425933, 0.26510422661496047, 0.06020307905006477, -2.27754361490853], [-2.702271036687216, 0.07453489933455816, 0.15884203927816945, -2.3725268443013316, -2.4637219665378023, -0.17436462653218993, -3.186547251189646, 0.010073284800807575, 0.1971689625614489, -2.640806670670971], [-2.9213493649351756, 0.02222662043127149, -0.12733613229410157, -2.0099148645617846, -2.146839560342528, -0.16206698594999985, -3.047008731934181, -0.05706956419671021, -0.41499943824932206, -2.9047553094041616], [-2.1029614359790236, -0.3692822487528444, 0.47723099059900453, -2.76730110433687, -2.339039658235888, 0.0030685348131128387, -2.3676537271191145, -0.1351525004577678, -0.24638753569049762, -2.6228793891974527], [-3.376856931892027, -0.14729951440033717, 0.07379349708765798, -2.234300122260395, -3.1888996970063066, -0.4159527354356479, -2.5863932422947937, -0.12956818782181598, -0.23184993055337655, -3.32779014636997], [-2.6137336848113595, 0.0876575922927308, -0.009084999051529761, -2.2007294845604553, -2.49180199154098, -0.1284982185736735, -2.754670399595084, -0.24578711980769818, -0.1520977100964004, -2.6111973750306787], [-1.6896809474465628, 0.28730443619910545, -0.5117129937436882, -2.728282568584281, -2.2224702147200945, 0.07268517366032212, -2.0457200078940874, 0.121637314565039, -0.0797162760459339, -2.1843844527205545], [-2.173821816490025, -0.2264890423878033, 0.17351093011993657, -2.9942225470085257, -2.6272318605222105, -0.41469124205461744, -2.207368557386613, 0.6197725038004667, 0.338629519219773, -3.1509794675943965], [-3.0162133887761993, 0.05495339679571537, 0.27968265713172236, -2.9308395799914786, -2.5000579480170457, -0.10358905611723275, -2.610979342662795, 0.5852069720889536, 0.27787474745638524, -2.308081801954867], [-2.4385954320543255, -0.05401312055674046, -0.1583135214434245, -2.406506634089143, -2.047028263764197, -0.755429515002464, -2.9729281397226273, 0.11058479248289572, 0.12918492581742186, -2.6655284404912987], [-2.3411274956434167, 0.060067326504307905, -0.16716973484556136, -2.44515837175529, -2.206009301065125, 0.25805774956594474, -2.3194818539801036, -0.11104159715270163, 0.4697792450550348, -2.1133209790235306], [-3.0996028322762696, 0.3383511387404578, 0.10617891019040018, -2.3951186731045904, -2.6085064246075578, 0.3853808608383459, -2.6137142819646613, 0.17032588890050876, 0.13986411156994247, -3.1276919972699844], [-2.605982422180654, 0.06979104459850013, 0.34678700922372946, -1.9417359816671464, -2.2861308557968427, 0.2985312929920717, -2.2087447593542824, 0.2314334512846191, -0.3527908713314567, -2.013899464306469], [-2.3198027698836845, 0.33552195666294266, -0.5868627111200779, -2.33998066798507, -2.595565176413255, 0.057097696876179535, -2.470960948425991, -0.003019544427300155, 0.28333330540303076, -2.6118872048802695], [-2.8772800608827453, 0.03489094398509167, 0.16156896542360427, -2.085843494732041, -2.6243672231753647, -0.30241436794176013, -3.385614325285774, -0.5980033226405371, 0.4095611106524606, -2.3642178253573802], [-2.6332843059671784, 0.15304692516793786, -0.626916982098378, -1.9082843941320753, -2.7508141543411253, 0.05448280908735592, -2.613044198558588, -0.5728406950237341, 0.05680670234917141, -2.9303539522121724], [-2.069920846110354, 0.14918801364731513, -0.0786547818268711, -2.3793605230034878, -1.8965762539452098, 0.8341001668075081, -2.257043757252119, -0.6821834473926359, 0.27653785659087643, -2.186195265870297], [-3.0746233939259553, -0.2683923907329375, -0.274200786355923, -1.8382868464966, -2.6769156940301566, 0.018692762634827692, -2.635860445760702, 0.057224173445868096, 0.04511866131041948, -2.586542005205617], [-2.742711174322901, -0.21378919399334967, -0.6048384321160861, -2.7753148684404447, -2.8932235232145223, 0.0408228475340639, -2.966013815840958, -0.009586782999904382, -0.2719961197904274, -2.5961858619142797], [-2.536865273090709, -0.25062861047406026, 0.1081596895872064, -2.827996739383466, -2.3957045081292248, -0.46775280291645, -2.0992102927208984, -0.0022811431200144804, -0.2869953032505796, -3.0799780886588795], [-2.655196290036422, -0.050515480941212706, -0.2892758929515323, -2.3395733670233736, -2.568357486632517, 0.41099785381320225, -2.50611747317965, 0.35217711771395216, 0.02158954767489276, -2.669898153933891], [-2.724044133237136, 0.6711256519212009, 0.12946732853238757, -2.1689450512627686, -2.5992509955428673, 0.09271225651940963, -2.6543445723847694, -0.20268509910343496, -0.3721289620325012, -2.5224736539937074], [-2.169084814668483, -0.07229043272673534, 0.10685922536841919, -2.086671460691454, -2.2975772185582604, -0.09786604060353661, -2.17805793741655, -0.06744636994361936, -0.16462184355831616, -2.5788339140442034], [-2.8329948935581366, -0.6569204096776976, 0.2906844319946239, -2.556474653956911, -2.405552994229376, 0.1383470479691005, -2.5834403044289247, -0.3312053630928034, -0.09708078729074306, -3.283734478150921], [-1.930197663639901, 0.11178457593276377, 0.2181314673551579, -2.175169684563597, -2.985115699653052, -0.39847004312289547, -2.476720994892007, -0.1192099627201152, -0.06586042427701701, -2.4953815579111005]]], "sizes": [2, 10, 250], "cost": "CrossEntropyCost"}